<?xml version="1.0"?>
<opencv_storage>
<cascade>
  <stageType>BOOST</stageType>
  <featureType>HAAR</featureType>
  <height>50</height>
  <width>50</width>
  <stageParams>
    <boostType>GAB</boostType>
    <minHitRate>9.9500000476837158e-01</minHitRate>
    <maxFalseAlarm>5.0000000000000000e-01</maxFalseAlarm>
    <weightTrimRate>9.4999999999999996e-01</weightTrimRate>
    <maxDepth>1</maxDepth>
    <maxWeakCount>100</maxWeakCount></stageParams>
  <featureParams>
    <maxCatCount>0</maxCatCount>
    <featSize>1</featSize>
    <mode>BASIC</mode></featureParams>
  <stageNum>18</stageNum>
  <stages>
    <!-- stage 0 -->
    <_>
      <maxWeakCount>2</maxWeakCount>
      <stageThreshold>-7.1615590713918209e-03</stageThreshold>
      <weakClassifiers>
        <_>
          <internalNodes>
            0 -1 15 2.4783283472061157e-02</internalNodes>
          <leafValues>
            -9.4638693332672119e-01 9.2942452430725098e-01</leafValues></_>
        <_>
          <internalNodes>
            0 -1 41 3.5335250198841095e-02</internalNodes>
          <leafValues>
            -8.8118457794189453e-01 9.3922537565231323e-01</leafValues></_></weakClassifiers></_>
    <!-- stage 1 -->
    <_>
      <maxWeakCount>2</maxWeakCount>
      <stageThreshold>-4.5956581830978394e-02</stageThreshold>
      <weakClassifiers>
        <_>
          <internalNodes>
            0 -1 10 2.7761965990066528e-02</internalNodes>
          <leafValues>
            -8.0561554431915283e-01 9.2784667015075684e-01</leafValues></_>
        <_>
          <internalNodes>
            0 -1 35 -6.4536421559751034e-03</internalNodes>
          <leafValues>
            7.5965899229049683e-01 -8.4236431121826172e-01</leafValues></_></weakClassifiers></_>
    <!-- stage 2 -->
    <_>
      <maxWeakCount>3</maxWeakCount>
      <stageThreshold>-7.3200315237045288e-01</stageThreshold>
      <weakClassifiers>
        <_>
          <internalNodes>
            0 -1 1 1.1073865741491318e-01</internalNodes>
          <leafValues>
            -7.9388445615768433e-01 8.8112270832061768e-01</leafValues></_>
        <_>
          <internalNodes>
            0 -1 18 2.4579020217061043e-02</internalNodes>
          <leafValues>
            -7.3906481266021729e-01 7.4771600961685181e-01</leafValues></_>
        <_>
          <internalNodes>
            0 -1 44 4.5760191977024078e-02</internalNodes>
          <leafValues>
            -6.8583464622497559e-01 8.0258136987686157e-01</leafValues></_></weakClassifiers></_>
    <!-- stage 3 -->
    <_>
      <maxWeakCount>4</maxWeakCount>
      <stageThreshold>-1.4931353330612183e+00</stageThreshold>
      <weakClassifiers>
        <_>
          <internalNodes>
            0 -1 51 4.6762367710471153e-03</internalNodes>
          <leafValues>
            -9.1404008865356445e-01 7.6823174953460693e-01</leafValues></_>
        <_>
          <internalNodes>
            0 -1 17 6.5808910876512527e-03</internalNodes>
          <leafValues>
            -8.3169108629226685e-01 6.8165552616119385e-01</leafValues></_>
        <_>
          <internalNodes>
            0 -1 54 -5.5348630994558334e-02</internalNodes>
          <leafValues>
            7.8379821777343750e-01 -7.1686869859695435e-01</leafValues></_>
        <_>
          <internalNodes>
            0 -1 32 7.5885234400629997e-03</internalNodes>
          <leafValues>
            -7.1280729770660400e-01 6.7790508270263672e-01</leafValues></_></weakClassifiers></_>
    <!-- stage 4 -->
    <_>
      <maxWeakCount>4</maxWeakCount>
      <stageThreshold>-1.4632086455821991e-01</stageThreshold>
      <weakClassifiers>
        <_>
          <internalNodes>
            0 -1 11 4.7638915479183197e-02</internalNodes>
          <leafValues>
            -6.4670050144195557e-01 8.9620989561080933e-01</leafValues></_>
        <_>
          <internalNodes>
            0 -1 48 6.8903546780347824e-03</internalNodes>
          <leafValues>
            -8.1976926326751709e-01 6.9852286577224731e-01</leafValues></_>
        <_>
          <internalNodes>
            0 -1 21 1.3545604888349771e-03</internalNodes>
          <leafValues>
            -8.3609646558761597e-01 5.7005029916763306e-01</leafValues></_>
        <_>
          <internalNodes>
            0 -1 3 -2.9874464496970177e-02</internalNodes>
          <leafValues>
            7.5009858608245850e-01 -6.6749811172485352e-01</leafValues></_></weakClassifiers></_>
    <!-- stage 5 -->
    <_>
      <maxWeakCount>1</maxWeakCount>
      <stageThreshold>9.1876000165939331e-01</stageThreshold>
      <weakClassifiers>
        <_>
          <internalNodes>
            0 -1 25 -4.1690171929076314e-04</internalNodes>
          <leafValues>
            -9.8793727159500122e-01 9.1876000165939331e-01</leafValues></_></weakClassifiers></_>
    <!-- stage 6 -->
    <_>
      <maxWeakCount>2</maxWeakCount>
      <stageThreshold>-7.5165621936321259e-02</stageThreshold>
      <weakClassifiers>
        <_>
          <internalNodes>
            0 -1 13 6.2396086752414703e-02</internalNodes>
          <leafValues>
            -6.6808509826660156e-01 8.6818182468414307e-01</leafValues></_>
        <_>
          <internalNodes>
            0 -1 36 -3.3375062048435211e-03</internalNodes>
          <leafValues>
            6.4262557029724121e-01 -9.4334745407104492e-01</leafValues></_></weakClassifiers></_>
    <!-- stage 7 -->
    <_>
      <maxWeakCount>3</maxWeakCount>
      <stageThreshold>2.0743174850940704e-01</stageThreshold>
      <weakClassifiers>
        <_>
          <internalNodes>
            0 -1 14 6.0695752501487732e-02</internalNodes>
          <leafValues>
            -7.1611255407333374e-01 7.6120960712432861e-01</leafValues></_>
        <_>
          <internalNodes>
            0 -1 45 1.0009137913584709e-03</internalNodes>
          <leafValues>
            -9.4414192438125610e-01 5.8061367273330688e-01</leafValues></_>
        <_>
          <internalNodes>
            0 -1 38 4.5723652874585241e-05</internalNodes>
          <leafValues>
            -9.3171530961990356e-01 3.9036408066749573e-01</leafValues></_></weakClassifiers></_>
    <!-- stage 8 -->
    <_>
      <maxWeakCount>6</maxWeakCount>
      <stageThreshold>-7.3147189617156982e-01</stageThreshold>
      <weakClassifiers>
        <_>
          <internalNodes>
            0 -1 20 1.4055845141410828e-01</internalNodes>
          <leafValues>
            -7.9791975021362305e-01 7.0892947912216187e-01</leafValues></_>
        <_>
          <internalNodes>
            0 -1 16 1.1959087103605270e-02</internalNodes>
          <leafValues>
            -5.8065581321716309e-01 7.1396988630294800e-01</leafValues></_>
        <_>
          <internalNodes>
            0 -1 49 3.7771277129650116e-04</internalNodes>
          <leafValues>
            -8.3225077390670776e-01 4.3566825985908508e-01</leafValues></_>
        <_>
          <internalNodes>
            0 -1 55 -2.2332187741994858e-02</internalNodes>
          <leafValues>
            5.8847916126251221e-01 -5.9028375148773193e-01</leafValues></_>
        <_>
          <internalNodes>
            0 -1 27 2.5393455289304256e-03</internalNodes>
          <leafValues>
            4.2088422179222107e-01 -8.1432402133941650e-01</leafValues></_>
        <_>
          <internalNodes>
            0 -1 31 1.0866744443774223e-02</internalNodes>
          <leafValues>
            -6.1632418632507324e-01 4.6999108791351318e-01</leafValues></_></weakClassifiers></_>
    <!-- stage 9 -->
    <_>
      <maxWeakCount>5</maxWeakCount>
      <stageThreshold>-7.9270255565643311e-01</stageThreshold>
      <weakClassifiers>
        <_>
          <internalNodes>
            0 -1 12 1.0391114652156830e-01</internalNodes>
          <leafValues>
            -4.0799999237060547e-01 8.6285716295242310e-01</leafValues></_>
        <_>
          <internalNodes>
            0 -1 53 7.7389739453792572e-03</internalNodes>
          <leafValues>
            -8.2085287570953369e-01 5.5890989303588867e-01</leafValues></_>
        <_>
          <internalNodes>
            0 -1 47 1.0948365554213524e-02</internalNodes>
          <leafValues>
            -5.7251751422882080e-01 5.9546661376953125e-01</leafValues></_>
        <_>
          <internalNodes>
            0 -1 26 -2.6112131308764219e-05</internalNodes>
          <leafValues>
            -9.3543726205825806e-01 3.6989128589630127e-01</leafValues></_>
        <_>
          <internalNodes>
            0 -1 8 2.7431137859821320e-02</internalNodes>
          <leafValues>
            -5.2194708585739136e-01 6.3877654075622559e-01</leafValues></_></weakClassifiers></_>
    <!-- stage 10 -->
    <_>
      <maxWeakCount>2</maxWeakCount>
      <stageThreshold>-1.7948983609676361e-01</stageThreshold>
      <weakClassifiers>
        <_>
          <internalNodes>
            0 -1 50 -5.4840795928612351e-04</internalNodes>
          <leafValues>
            -9.6694213151931763e-01 7.0883053541183472e-01</leafValues></_>
        <_>
          <internalNodes>
            0 -1 4 1.4483386278152466e-01</internalNodes>
          <leafValues>
            -6.5423440933227539e-01 7.8745234012603760e-01</leafValues></_></weakClassifiers></_>
    <!-- stage 11 -->
    <_>
      <maxWeakCount>2</maxWeakCount>
      <stageThreshold>-9.5474114641547203e-03</stageThreshold>
      <weakClassifiers>
        <_>
          <internalNodes>
            0 -1 43 5.9185898862779140e-04</internalNodes>
          <leafValues>
            -7.3152709007263184e-01 7.9131358861923218e-01</leafValues></_>
        <_>
          <internalNodes>
            0 -1 19 2.0298138260841370e-02</internalNodes>
          <leafValues>
            -6.5487921237945557e-01 7.2197967767715454e-01</leafValues></_></weakClassifiers></_>
    <!-- stage 12 -->
    <_>
      <maxWeakCount>2</maxWeakCount>
      <stageThreshold>-1.7835745215415955e-01</stageThreshold>
      <weakClassifiers>
        <_>
          <internalNodes>
            0 -1 39 -5.8144435752183199e-04</internalNodes>
          <leafValues>
            -9.6820807456970215e-01 7.8187251091003418e-01</leafValues></_>
        <_>
          <internalNodes>
            0 -1 6 7.1582138538360596e-02</internalNodes>
          <leafValues>
            -6.9053649902343750e-01 7.8985065221786499e-01</leafValues></_></weakClassifiers></_>
    <!-- stage 13 -->
    <_>
      <maxWeakCount>3</maxWeakCount>
      <stageThreshold>-8.5572332143783569e-01</stageThreshold>
      <weakClassifiers>
        <_>
          <internalNodes>
            0 -1 28 4.1393628343939781e-03</internalNodes>
          <leafValues>
            8.2185393571853638e-01 -8.9336800575256348e-01</leafValues></_>
        <_>
          <internalNodes>
            0 -1 5 1.8610779196023941e-02</internalNodes>
          <leafValues>
            -5.9323537349700928e-01 9.1880273818969727e-01</leafValues></_>
        <_>
          <internalNodes>
            0 -1 37 2.1744370460510254e-03</internalNodes>
          <leafValues>
            -8.3526706695556641e-01 6.3088005781173706e-01</leafValues></_></weakClassifiers></_>
    <!-- stage 14 -->
    <_>
      <maxWeakCount>2</maxWeakCount>
      <stageThreshold>-2.4742025136947632e-01</stageThreshold>
      <weakClassifiers>
        <_>
          <internalNodes>
            0 -1 42 2.3017199710011482e-03</internalNodes>
          <leafValues>
            8.6506277322769165e-01 -9.5685279369354248e-01</leafValues></_>
        <_>
          <internalNodes>
            0 -1 2 1.5945207327604294e-02</internalNodes>
          <leafValues>
            -7.8295618295669556e-01 7.0943254232406616e-01</leafValues></_></weakClassifiers></_>
    <!-- stage 15 -->
    <_>
      <maxWeakCount>4</maxWeakCount>
      <stageThreshold>-4.0010794997215271e-01</stageThreshold>
      <weakClassifiers>
        <_>
          <internalNodes>
            0 -1 40 3.4888874739408493e-02</internalNodes>
          <leafValues>
            -7.7352470159530640e-01 6.6811382770538330e-01</leafValues></_>
        <_>
          <internalNodes>
            0 -1 24 2.5666966103017330e-03</internalNodes>
          <leafValues>
            -5.6565463542938232e-01 7.2806519269943237e-01</leafValues></_>
        <_>
          <internalNodes>
            0 -1 7 4.5189440250396729e-02</internalNodes>
          <leafValues>
            -6.8523901700973511e-01 6.6702091693878174e-01</leafValues></_>
        <_>
          <internalNodes>
            0 -1 23 -2.0059075905010104e-04</internalNodes>
          <leafValues>
            -9.1923707723617554e-01 3.3059060573577881e-01</leafValues></_></weakClassifiers></_>
    <!-- stage 16 -->
    <_>
      <maxWeakCount>5</maxWeakCount>
      <stageThreshold>-9.7314786911010742e-01</stageThreshold>
      <weakClassifiers>
        <_>
          <internalNodes>
            0 -1 33 -9.2224538093432784e-05</internalNodes>
          <leafValues>
            6.0619872808456421e-01 -8.4980237483978271e-01</leafValues></_>
        <_>
          <internalNodes>
            0 -1 9 1.6082078218460083e-01</internalNodes>
          <leafValues>
            -5.4575985670089722e-01 7.4852347373962402e-01</leafValues></_>
        <_>
          <internalNodes>
            0 -1 34 -3.3294556487817317e-05</internalNodes>
          <leafValues>
            4.3847352266311646e-01 -8.2878649234771729e-01</leafValues></_>
        <_>
          <internalNodes>
            0 -1 52 -3.5702247172594070e-02</internalNodes>
          <leafValues>
            5.4086470603942871e-01 -5.7042026519775391e-01</leafValues></_>
        <_>
          <internalNodes>
            0 -1 30 -7.9405605792999268e-03</internalNodes>
          <leafValues>
            -9.6357202529907227e-01 3.6562007665634155e-01</leafValues></_></weakClassifiers></_>
    <!-- stage 17 -->
    <_>
      <maxWeakCount>4</maxWeakCount>
      <stageThreshold>-4.7321087121963501e-01</stageThreshold>
      <weakClassifiers>
        <_>
          <internalNodes>
            0 -1 29 2.4971449747681618e-03</internalNodes>
          <leafValues>
            7.0930230617523193e-01 -8.8679248094558716e-01</leafValues></_>
        <_>
          <internalNodes>
            0 -1 0 1.4218953251838684e-01</internalNodes>
          <leafValues>
            -7.2441601753234863e-01 6.8797129392623901e-01</leafValues></_>
        <_>
          <internalNodes>
            0 -1 46 1.2450646609067917e-03</internalNodes>
          <leafValues>
            -8.3406054973602295e-01 5.4816871881484985e-01</leafValues></_>
        <_>
          <internalNodes>
            0 -1 22 3.4129228442907333e-03</internalNodes>
          <leafValues>
            -7.3416036367416382e-01 5.5967086553573608e-01</leafValues></_></weakClassifiers></_></stages>
  <features>
    <_>
      <rects>
        <_>
          0 0 32 40 -1.</_>
        <_>
          0 0 16 20 2.</_>
        <_>
          16 20 16 20 2.</_></rects>
      <tilted>0</tilted></_>
    <_>
      <rects>
        <_>
          0 0 36 42 -1.</_>
        <_>
          0 0 18 21 2.</_>
        <_>
          18 21 18 21 2.</_></rects>
      <tilted>0</tilted></_>
    <_>
      <rects>
        <_>
          0 15 30 10 -1.</_>
        <_>
          0 15 15 5 2.</_>
        <_>
          15 20 15 5 2.</_></rects>
      <tilted>0</tilted></_>
    <_>
      <rects>
        <_>
          0 38 34 12 -1.</_>
        <_>
          0 38 17 6 2.</_>
        <_>
          17 44 17 6 2.</_></rects>
      <tilted>0</tilted></_>
    <_>
      <rects>
        <_>
          1 0 28 44 -1.</_>
        <_>
          1 0 14 22 2.</_>
        <_>
          15 22 14 22 2.</_></rects>
      <tilted>0</tilted></_>
    <_>
      <rects>
        <_>
          1 40 34 2 -1.</_>
        <_>
          18 40 17 2 2.</_></rects>
      <tilted>0</tilted></_>
    <_>
      <rects>
        <_>
          2 4 38 26 -1.</_>
        <_>
          2 4 19 13 2.</_>
        <_>
          21 17 19 13 2.</_></rects>
      <tilted>0</tilted></_>
    <_>
      <rects>
        <_>
          2 39 48 4 -1.</_>
        <_>
          18 39 16 4 3.</_></rects>
      <tilted>0</tilted></_>
    <_>
      <rects>
        <_>
          2 41 48 2 -1.</_>
        <_>
          18 41 16 2 3.</_></rects>
      <tilted>0</tilted></_>
    <_>
      <rects>
        <_>
          3 23 26 22 -1.</_>
        <_>
          16 23 13 22 2.</_></rects>
      <tilted>0</tilted></_>
    <_>
      <rects>
        <_>
          5 10 24 18 -1.</_>
        <_>
          5 10 12 9 2.</_>
        <_>
          17 19 12 9 2.</_></rects>
      <tilted>0</tilted></_>
    <_>
      <rects>
        <_>
          7 5 16 30 -1.</_>
        <_>
          7 5 8 15 2.</_>
        <_>
          15 20 8 15 2.</_></rects>
      <tilted>0</tilted></_>
    <_>
      <rects>
        <_>
          7 21 18 25 -1.</_>
        <_>
          16 21 9 25 2.</_></rects>
      <tilted>0</tilted></_>
    <_>
      <rects>
        <_>
          8 22 16 22 -1.</_>
        <_>
          16 22 8 22 2.</_></rects>
      <tilted>0</tilted></_>
    <_>
      <rects>
        <_>
          9 20 16 26 -1.</_>
        <_>
          17 20 8 26 2.</_></rects>
      <tilted>0</tilted></_>
    <_>
      <rects>
        <_>
          10 18 24 15 -1.</_>
        <_>
          18 18 8 15 3.</_></rects>
      <tilted>0</tilted></_>
    <_>
      <rects>
        <_>
          10 26 8 9 -1.</_>
        <_>
          14 26 4 9 2.</_></rects>
      <tilted>0</tilted></_>
    <_>
      <rects>
        <_>
          10 28 18 3 -1.</_>
        <_>
          16 28 6 3 3.</_></rects>
      <tilted>0</tilted></_>
    <_>
      <rects>
        <_>
          11 20 10 23 -1.</_>
        <_>
          16 20 5 23 2.</_></rects>
      <tilted>0</tilted></_>
    <_>
      <rects>
        <_>
          11 21 8 16 -1.</_>
        <_>
          15 21 4 16 2.</_></rects>
      <tilted>0</tilted></_>
    <_>
      <rects>
        <_>
          14 13 34 36 -1.</_>
        <_>
          14 25 34 12 3.</_></rects>
      <tilted>0</tilted></_>
    <_>
      <rects>
        <_>
          14 19 14 9 -1.</_>
        <_>
          14 22 14 3 3.</_></rects>
      <tilted>0</tilted></_>
    <_>
      <rects>
        <_>
          15 18 29 9 -1.</_>
        <_>
          15 21 29 3 3.</_></rects>
      <tilted>0</tilted></_>
    <_>
      <rects>
        <_>
          16 24 21 3 -1.</_>
        <_>
          16 25 21 1 3.</_></rects>
      <tilted>0</tilted></_>
    <_>
      <rects>
        <_>
          17 17 7 9 -1.</_>
        <_>
          17 20 7 3 3.</_></rects>
      <tilted>0</tilted></_>
    <_>
      <rects>
        <_>
          17 22 5 12 -1.</_>
        <_>
          17 26 5 4 3.</_></rects>
      <tilted>0</tilted></_>
    <_>
      <rects>
        <_>
          17 30 6 2 -1.</_>
        <_>
          19 30 2 2 3.</_></rects>
      <tilted>0</tilted></_>
    <_>
      <rects>
        <_>
          17 31 16 9 -1.</_>
        <_>
          17 34 16 3 3.</_></rects>
      <tilted>0</tilted></_>
    <_>
      <rects>
        <_>
          19 23 10 12 -1.</_>
        <_>
          19 27 10 4 3.</_></rects>
      <tilted>0</tilted></_>
    <_>
      <rects>
        <_>
          19 24 21 10 -1.</_>
        <_>
          19 29 21 5 2.</_></rects>
      <tilted>0</tilted></_>
    <_>
      <rects>
        <_>
          19 25 17 12 -1.</_>
        <_>
          19 31 17 6 2.</_></rects>
      <tilted>0</tilted></_>
    <_>
      <rects>
        <_>
          21 15 7 15 -1.</_>
        <_>
          21 20 7 5 3.</_></rects>
      <tilted>0</tilted></_>
    <_>
      <rects>
        <_>
          21 16 7 15 -1.</_>
        <_>
          21 21 7 5 3.</_></rects>
      <tilted>0</tilted></_>
    <_>
      <rects>
        <_>
          22 23 10 1 -1.</_>
        <_>
          27 23 5 1 2.</_></rects>
      <tilted>0</tilted></_>
    <_>
      <rects>
        <_>
          23 37 20 2 -1.</_>
        <_>
          23 37 10 1 2.</_>
        <_>
          33 38 10 1 2.</_></rects>
      <tilted>0</tilted></_>
    <_>
      <rects>
        <_>
          24 27 22 18 -1.</_>
        <_>
          24 27 11 9 2.</_>
        <_>
          35 36 11 9 2.</_></rects>
      <tilted>0</tilted></_>
    <_>
      <rects>
        <_>
          25 25 16 22 -1.</_>
        <_>
          25 25 8 11 2.</_>
        <_>
          33 36 8 11 2.</_></rects>
      <tilted>0</tilted></_>
    <_>
      <rects>
        <_>
          26 24 24 1 -1.</_>
        <_>
          34 24 8 1 3.</_></rects>
      <tilted>0</tilted></_>
    <_>
      <rects>
        <_>
          26 32 10 4 -1.</_>
        <_>
          26 34 10 2 2.</_></rects>
      <tilted>0</tilted></_>
    <_>
      <rects>
        <_>
          26 34 8 6 -1.</_>
        <_>
          26 36 8 2 3.</_></rects>
      <tilted>0</tilted></_>
    <_>
      <rects>
        <_>
          27 0 21 44 -1.</_>
        <_>
          34 0 7 44 3.</_></rects>
      <tilted>0</tilted></_>
    <_>
      <rects>
        <_>
          27 15 21 26 -1.</_>
        <_>
          34 15 7 26 3.</_></rects>
      <tilted>0</tilted></_>
    <_>
      <rects>
        <_>
          27 34 8 6 -1.</_>
        <_>
          27 36 8 2 3.</_></rects>
      <tilted>0</tilted></_>
    <_>
      <rects>
        <_>
          27 38 4 9 -1.</_>
        <_>
          27 41 4 3 3.</_></rects>
      <tilted>0</tilted></_>
    <_>
      <rects>
        <_>
          28 18 21 21 -1.</_>
        <_>
          35 18 7 21 3.</_></rects>
      <tilted>0</tilted></_>
    <_>
      <rects>
        <_>
          28 25 8 9 -1.</_>
        <_>
          32 25 4 9 2.</_></rects>
      <tilted>0</tilted></_>
    <_>
      <rects>
        <_>
          28 34 1 15 -1.</_>
        <_>
          28 39 1 5 3.</_></rects>
      <tilted>0</tilted></_>
    <_>
      <rects>
        <_>
          29 20 18 5 -1.</_>
        <_>
          35 20 6 5 3.</_></rects>
      <tilted>0</tilted></_>
    <_>
      <rects>
        <_>
          29 21 18 6 -1.</_>
        <_>
          35 21 6 6 3.</_></rects>
      <tilted>0</tilted></_>
    <_>
      <rects>
        <_>
          29 29 9 11 -1.</_>
        <_>
          32 29 3 11 3.</_></rects>
      <tilted>0</tilted></_>
    <_>
      <rects>
        <_>
          30 34 12 7 -1.</_>
        <_>
          34 34 4 7 3.</_></rects>
      <tilted>0</tilted></_>
    <_>
      <rects>
        <_>
          32 23 3 27 -1.</_>
        <_>
          32 32 3 9 3.</_></rects>
      <tilted>0</tilted></_>
    <_>
      <rects>
        <_>
          36 0 14 36 -1.</_>
        <_>
          36 0 7 18 2.</_>
        <_>
          43 18 7 18 2.</_></rects>
      <tilted>0</tilted></_>
    <_>
      <rects>
        <_>
          36 8 1 42 -1.</_>
        <_>
          36 22 1 14 3.</_></rects>
      <tilted>0</tilted></_>
    <_>
      <rects>
        <_>
          36 16 14 32 -1.</_>
        <_>
          43 16 7 32 2.</_></rects>
      <tilted>0</tilted></_>
    <_>
      <rects>
        <_>
          40 0 10 38 -1.</_>
        <_>
          40 0 5 19 2.</_>
        <_>
          45 19 5 19 2.</_></rects>
      <tilted>0</tilted></_></features></cascade>
</opencv_storage>
